Language model created by QuickLM on Thu Feb 19 20:18:30 EST 2015
Copyright (c) 1996-2010 Carnegie Mellon University and Alexander I. Rudnicky

The model is in standard ARPA format, designed by Doug Paul while he was at MITRE.

The code that was used to produce this language model is available in Open Source.
Please visit http://www.speech.cs.cmu.edu/tools/ for more information

The (fixed) discount mass is 0.5. The backoffs are computed using the ratio method.
This model based on a corpus of 47 sentences and 55 words

\data\
ngram 1=55
ngram 2=109
ngram 3=77

\1-grams:
-0.8937 </s> -0.3010
-0.8937 <s> -0.2251
-1.9638 A -0.2951
-1.7877 AN -0.2939
-1.7877 APPOINTMENT -0.2376
-2.2648 AT -0.2963
-2.2648 BELSIN -0.2417
-2.2648 CHANDRA -0.2390
-2.5658 CHRIS -0.2417
-2.2648 CLOCK -0.2951
-2.5658 CREATE -0.2939
-2.2648 EIGHT -0.2390
-2.5658 EIGHTEEN -0.2417
-2.5658 ELEVEN -0.2417
-2.5658 FIFTEEN -0.2417
-2.5658 FIFTY -0.2417
-2.5658 FIVE -0.2417
-2.5658 FORTY -0.2417
-2.5658 FOUR -0.2417
-2.5658 FOURTEEN -0.2417
-2.2648 INVOCABOT -0.2963
-2.5658 JULIO -0.2417
-2.2648 KYLE -0.2390
-2.2648 M -0.2417
-2.5658 MAKE -0.2998
-2.5658 ME -0.2939
-2.0887 MEETING -0.2376
-2.5658 NIGHT -0.2417
-2.5658 NINE -0.2417
-2.5658 NINETEEN -0.2417
-2.2648 O -0.2987
-2.5658 ONE -0.2417
-2.5658 P -0.2987
-2.5658 PETER -0.2417
-2.5658 PETROS -0.2417
-1.9638 SCHEDULE -0.2891
-2.0887 SET -0.2975
-2.5658 SEVEN -0.2417
-2.5658 SEVENTEEN -0.2417
-2.5658 SHENG -0.2417
-2.5658 SIX -0.2417
-2.5658 SIXTEEN -0.2417
-2.5658 SIXTY -0.2417
-2.5658 TEN -0.2417
-2.5658 THIRTEEN -0.2417
-2.5658 THIRTY -0.2417
-2.5658 THREE -0.2417
-2.5658 TODAY -0.2417
-2.0887 TOMORROW -0.2403
-2.2648 TONIGHT -0.2417
-2.2648 TWELVE -0.2390
-2.5658 TWENTY -0.2417
-2.5658 TWO -0.2417
-2.0887 UP -0.2891
-2.0887 WITH -0.2939

\2-grams:
-1.9731 <s> A -0.2430
-1.9731 <s> BELSIN 0.0000
-1.9731 <s> CHANDRA -0.1761
-1.9731 <s> CHRIS 0.0000
-1.9731 <s> CREATE 0.0000
-1.9731 <s> EIGHT -0.1761
-1.9731 <s> EIGHTEEN 0.0000
-1.9731 <s> ELEVEN 0.0000
-1.9731 <s> FIFTEEN 0.0000
-1.9731 <s> FIFTY 0.0000
-1.9731 <s> FIVE 0.0000
-1.9731 <s> FORTY 0.0000
-1.9731 <s> FOUR 0.0000
-1.9731 <s> FOURTEEN 0.0000
-1.6721 <s> INVOCABOT 0.0000
-1.9731 <s> JULIO 0.0000
-1.9731 <s> KYLE -0.1761
-1.9731 <s> MAKE 0.0000
-1.9731 <s> NINE 0.0000
-1.9731 <s> NINETEEN 0.0000
-1.9731 <s> ONE 0.0000
-1.9731 <s> P 0.0000
-1.9731 <s> PETER 0.0000
-1.9731 <s> PETROS 0.0000
-1.6721 <s> SCHEDULE 0.0000
-1.4960 <s> SET 0.0000
-1.9731 <s> SEVEN 0.0000
-1.9731 <s> SEVENTEEN 0.0000
-1.9731 <s> SHENG 0.0000
-1.9731 <s> SIX 0.0000
-1.9731 <s> SIXTEEN 0.0000
-1.9731 <s> SIXTY 0.0000
-1.9731 <s> TEN 0.0000
-1.9731 <s> THIRTEEN 0.0000
-1.9731 <s> THIRTY 0.0000
-1.9731 <s> THREE 0.0000
-1.9731 <s> TODAY 0.0000
-1.6721 <s> TOMORROW 0.0000
-1.9731 <s> TONIGHT 0.0000
-1.9731 <s> TWELVE -0.1761
-1.9731 <s> TWENTY 0.0000
-1.9731 <s> TWO 0.0000
-0.9031 A M 0.0000
-0.4260 A MEETING 0.0000
-0.3010 AN APPOINTMENT 0.0000
-0.4771 APPOINTMENT </s> -0.3010
-0.7782 APPOINTMENT WITH -0.1249
-0.6021 AT EIGHT -0.1761
-0.6021 AT TWELVE -0.1761
-0.3010 BELSIN </s> -0.3010
-0.6021 CHANDRA </s> -0.3010
-0.6021 CHANDRA AT -0.1761
-0.3010 CHRIS </s> -0.3010
-0.6021 CLOCK TOMORROW -0.1249
-0.6021 CLOCK TONIGHT 0.0000
-0.3010 CREATE AN 0.0000
-0.6021 EIGHT </s> -0.3010
-0.6021 EIGHT O 0.0000
-0.3010 EIGHTEEN </s> -0.3010
-0.3010 ELEVEN </s> -0.3010
-0.3010 FIFTEEN </s> -0.3010
-0.3010 FIFTY </s> -0.3010
-0.3010 FIVE </s> -0.3010
-0.3010 FORTY </s> -0.3010
-0.3010 FOUR </s> -0.3010
-0.3010 FOURTEEN </s> -0.3010
-0.3010 INVOCABOT SCHEDULE -0.0969
-0.3010 JULIO </s> -0.3010
-0.6021 KYLE </s> -0.3010
-0.6021 KYLE AT -0.1761
-0.3010 M </s> -0.3010
-0.3010 MAKE ME 0.0000
-0.3010 ME AN 0.0000
-0.4771 MEETING </s> -0.3010
-0.7782 MEETING WITH -0.2218
-0.3010 NIGHT </s> -0.3010
-0.3010 NINE </s> -0.3010
-0.3010 NINETEEN </s> -0.3010
-0.3010 O CLOCK 0.0000
-0.3010 ONE </s> -0.3010
-0.3010 P M 0.0000
-0.3010 PETER </s> -0.3010
-0.3010 PETROS </s> -0.3010
-0.9031 SCHEDULE A -0.0969
-0.4260 SCHEDULE AN 0.0000
-0.3010 SET UP 0.0000
-0.3010 SEVEN </s> -0.3010
-0.3010 SEVENTEEN </s> -0.3010
-0.3010 SHENG </s> -0.3010
-0.3010 SIX </s> -0.3010
-0.3010 SIXTEEN </s> -0.3010
-0.3010 SIXTY </s> -0.3010
-0.3010 TEN </s> -0.3010
-0.3010 THIRTEEN </s> -0.3010
-0.3010 THIRTY </s> -0.3010
-0.3010 THREE </s> -0.3010
-0.3010 TODAY </s> -0.3010
-0.4771 TOMORROW </s> -0.3010
-0.7782 TOMORROW NIGHT 0.0000
-0.3010 TONIGHT </s> -0.3010
-0.6021 TWELVE </s> -0.3010
-0.6021 TWELVE O 0.0000
-0.3010 TWENTY </s> -0.3010
-0.3010 TWO </s> -0.3010
-0.4771 UP A -0.0969
-0.7782 UP AN 0.0000
-0.7782 WITH BELSIN 0.0000
-0.7782 WITH CHANDRA -0.1761
-0.7782 WITH KYLE -0.1761

\3-grams:
-0.3010 <s> A M
-0.3010 <s> BELSIN </s>
-0.3010 <s> CHANDRA </s>
-0.3010 <s> CHRIS </s>
-0.3010 <s> CREATE AN
-0.3010 <s> EIGHT </s>
-0.3010 <s> EIGHTEEN </s>
-0.3010 <s> ELEVEN </s>
-0.3010 <s> FIFTEEN </s>
-0.3010 <s> FIFTY </s>
-0.3010 <s> FIVE </s>
-0.3010 <s> FORTY </s>
-0.3010 <s> FOUR </s>
-0.3010 <s> FOURTEEN </s>
-0.3010 <s> INVOCABOT SCHEDULE
-0.3010 <s> JULIO </s>
-0.3010 <s> KYLE </s>
-0.3010 <s> MAKE ME
-0.3010 <s> NINE </s>
-0.3010 <s> NINETEEN </s>
-0.3010 <s> ONE </s>
-0.3010 <s> P M
-0.3010 <s> PETER </s>
-0.3010 <s> PETROS </s>
-0.6021 <s> SCHEDULE A
-0.6021 <s> SCHEDULE AN
-0.3010 <s> SET UP
-0.3010 <s> SEVEN </s>
-0.3010 <s> SEVENTEEN </s>
-0.3010 <s> SHENG </s>
-0.3010 <s> SIX </s>
-0.3010 <s> SIXTEEN </s>
-0.3010 <s> SIXTY </s>
-0.3010 <s> TEN </s>
-0.3010 <s> THIRTEEN </s>
-0.3010 <s> THIRTY </s>
-0.3010 <s> THREE </s>
-0.3010 <s> TODAY </s>
-0.6021 <s> TOMORROW </s>
-0.6021 <s> TOMORROW NIGHT
-0.3010 <s> TONIGHT </s>
-0.3010 <s> TWELVE </s>
-0.3010 <s> TWENTY </s>
-0.3010 <s> TWO </s>
-0.3010 A M </s>
-0.4771 A MEETING </s>
-0.7782 A MEETING WITH
-0.4771 AN APPOINTMENT </s>
-0.7782 AN APPOINTMENT WITH
-0.6021 APPOINTMENT WITH CHANDRA
-0.6021 APPOINTMENT WITH KYLE
-0.3010 AT EIGHT O
-0.3010 AT TWELVE O
-0.3010 CHANDRA AT TWELVE
-0.3010 CLOCK TOMORROW </s>
-0.3010 CLOCK TONIGHT </s>
-0.3010 CREATE AN APPOINTMENT
-0.3010 EIGHT O CLOCK
-0.3010 INVOCABOT SCHEDULE AN
-0.3010 KYLE AT EIGHT
-0.3010 MAKE ME AN
-0.3010 ME AN APPOINTMENT
-0.3010 MEETING WITH BELSIN
-0.6021 O CLOCK TOMORROW
-0.6021 O CLOCK TONIGHT
-0.3010 P M </s>
-0.3010 SCHEDULE A MEETING
-0.3010 SCHEDULE AN APPOINTMENT
-0.4771 SET UP A
-0.7782 SET UP AN
-0.3010 TOMORROW NIGHT </s>
-0.3010 TWELVE O CLOCK
-0.3010 UP A MEETING
-0.3010 UP AN APPOINTMENT
-0.3010 WITH BELSIN </s>
-0.3010 WITH CHANDRA AT
-0.3010 WITH KYLE AT

\end\
