Language model created by QuickLM on Tue Mar 31 21:35:29 EDT 2015
Copyright (c) 1996-2010 Carnegie Mellon University and Alexander I. Rudnicky

The model is in standard ARPA format, designed by Doug Paul while he was at MITRE.

The code that was used to produce this language model is available in Open Source.
Please visit http://www.speech.cs.cmu.edu/tools/ for more information

The (fixed) discount mass is 0.5. The backoffs are computed using the ratio method.
This model based on a corpus of 100 sentences and 106 words

\data\
ngram 1=106
ngram 2=213
ngram 3=132

\1-grams:
-0.8426 </s> -0.3010
-0.8426 <s> -0.2233
-2.0645 A -0.2966
-2.0645 AN -0.2973
-2.0645 APPOINTMENT -0.2315
-2.8426 APRIL -0.2337
-2.5416 AT -0.2985
-2.8426 AUGUST -0.2337
-2.5416 BELSIN -0.2337
-2.5416 CHANDRA -0.2322
-2.8426 CHRIS -0.2337
-2.5416 CLOCK -0.2979
-2.8426 COLIN -0.2337
-2.5416 CREATE -0.2935
-2.8426 DECEMBER -0.2337
-2.5416 EIGHT -0.2322
-2.8426 EIGHTEEN -0.2337
-2.8426 EIGHTEENTH -0.2337
-2.8426 EIGHTH -0.2337
-2.8426 ELEVEN -0.2337
-2.8426 ELEVENTH -0.2337
-2.8426 FEBRUARY -0.2337
-2.8426 FIFTEEN -0.2337
-2.8426 FIFTEENTH -0.2337
-2.8426 FIFTH -0.2337
-2.8426 FIFTY -0.2337
-2.8426 FIRST -0.2337
-2.8426 FIVE -0.2337
-2.8426 FORTY -0.2337
-2.8426 FOUR -0.2337
-2.8426 FOURTEEN -0.2337
-2.8426 FOURTEENTH -0.2337
-2.8426 FOURTH -0.2337
-2.8426 FRIDAY -0.2337
-2.5416 INVOCABOT -0.2985
-2.8426 JANUARY -0.2337
-2.8426 JULIO -0.2337
-2.8426 JULY -0.2337
-2.8426 JUNE -0.2337
-2.5416 KYLE -0.2322
-2.5416 M -0.2337
-2.5416 MAKE -0.2998
-2.8426 MARCH -0.2337
-2.8426 MAY -0.2337
-2.5416 ME -0.2935
-2.1436 MEETING -0.2315
-2.8426 MONDAY -0.2337
-2.8426 NIGHT -0.2337
-2.8426 NINE -0.2337
-2.8426 NINETEEN -0.2337
-2.8426 NINETEENTH -0.2337
-2.8426 NINTH -0.2337
-2.8426 NOVEMBER -0.2337
-2.5416 O -0.2998
-2.8426 OCTOBER -0.2337
-2.8426 ON -0.2337
-2.8426 ONE -0.2337
-2.8426 P -0.2998
-2.8426 PETER -0.2337
-2.8426 PETROS -0.2337
-2.2405 SCHEDULE -0.2935
-2.8426 SECOND -0.2337
-2.8426 SEPTEMBER -0.2337
-2.3655 SET -0.2992
-2.8426 SEVEN -0.2337
-2.8426 SEVENTEEN -0.2337
-2.8426 SEVENTEENTH -0.2337
-2.8426 SEVENTH -0.2337
-2.8426 SHENG -0.2337
-2.8426 SIX -0.2337
-2.8426 SIXTEEN -0.2337
-2.8426 SIXTEENTH -0.2337
-2.8426 SIXTH -0.2337
-2.8426 SIXTY -0.2337
-2.8426 TEN -0.2337
-2.8426 TENTH -0.2337
-2.8426 THE -0.2337
-2.8426 THIRD -0.2337
-2.8426 THIRTEEN -0.2337
-2.8426 THIRTEENTH -0.2337
-2.8426 THIRTIETH -0.2337
-2.8426 THIRTY -0.2337
-2.8426 THIRTY-FIRST -0.2337
-2.8426 THREE -0.2337
-2.8426 THURSDAY -0.2337
-2.8426 TODAY -0.2337
-2.3655 TOMORROW -0.2329
-2.5416 TONIGHT -0.2337
-2.8426 TUESDAY -0.2337
-2.8426 TWELFTH -0.2337
-2.5416 TWELVE -0.2322
-2.8426 TWENTIETH -0.2337
-2.8426 TWENTY -0.2337
-2.8426 TWENTY-EIGHTH -0.2337
-2.8426 TWENTY-FIFTH -0.2337
-2.8426 TWENTY-FIRST -0.2337
-2.8426 TWENTY-FOURTH -0.2337
-2.8426 TWENTY-NINTH -0.2337
-2.8426 TWENTY-SECOND -0.2337
-2.8426 TWENTY-SEVENTH -0.2337
-2.8426 TWENTY-SIXTH -0.2337
-2.8426 TWENTY-THIRD -0.2337
-2.8426 TWO -0.2337
-2.3655 UP -0.2935
-2.8426 WEDNESDAY -0.2337
-2.3655 WITH -0.2973

\2-grams:
-2.3010 <s> A -0.2632
-2.3010 <s> APRIL 0.0000
-2.3010 <s> AUGUST 0.0000
-2.3010 <s> BELSIN 0.0000
-2.3010 <s> CHANDRA -0.1761
-2.3010 <s> CHRIS 0.0000
-2.3010 <s> COLIN 0.0000
-2.0000 <s> CREATE 0.0000
-2.3010 <s> DECEMBER 0.0000
-2.3010 <s> EIGHT -0.1761
-2.3010 <s> EIGHTEEN 0.0000
-2.3010 <s> EIGHTEENTH 0.0000
-2.3010 <s> EIGHTH 0.0000
-2.3010 <s> ELEVEN 0.0000
-2.3010 <s> ELEVENTH 0.0000
-2.3010 <s> FEBRUARY 0.0000
-2.3010 <s> FIFTEEN 0.0000
-2.3010 <s> FIFTEENTH 0.0000
-2.3010 <s> FIFTH 0.0000
-2.3010 <s> FIFTY 0.0000
-2.3010 <s> FIRST 0.0000
-2.3010 <s> FIVE 0.0000
-2.3010 <s> FORTY 0.0000
-2.3010 <s> FOUR 0.0000
-2.3010 <s> FOURTEEN 0.0000
-2.3010 <s> FOURTEENTH 0.0000
-2.3010 <s> FOURTH 0.0000
-2.3010 <s> FRIDAY 0.0000
-2.0000 <s> INVOCABOT 0.0000
-2.3010 <s> JANUARY 0.0000
-2.3010 <s> JULIO 0.0000
-2.3010 <s> JULY 0.0000
-2.3010 <s> JUNE 0.0000
-2.3010 <s> KYLE -0.1761
-2.0000 <s> MAKE 0.0000
-2.3010 <s> MARCH 0.0000
-2.3010 <s> MAY 0.0000
-2.3010 <s> MONDAY 0.0000
-2.3010 <s> NINE 0.0000
-2.3010 <s> NINETEEN 0.0000
-2.3010 <s> NINETEENTH 0.0000
-2.3010 <s> NINTH 0.0000
-2.3010 <s> NOVEMBER 0.0000
-2.3010 <s> OCTOBER 0.0000
-2.3010 <s> ON 0.0000
-2.3010 <s> ONE 0.0000
-2.3010 <s> P 0.0000
-2.3010 <s> PETER 0.0000
-2.3010 <s> PETROS 0.0000
-2.0000 <s> SCHEDULE 0.0000
-2.3010 <s> SECOND 0.0000
-2.3010 <s> SEPTEMBER 0.0000
-1.8239 <s> SET 0.0000
-2.3010 <s> SEVEN 0.0000
-2.3010 <s> SEVENTEEN 0.0000
-2.3010 <s> SEVENTEENTH 0.0000
-2.3010 <s> SEVENTH 0.0000
-2.3010 <s> SHENG 0.0000
-2.3010 <s> SIX 0.0000
-2.3010 <s> SIXTEEN 0.0000
-2.3010 <s> SIXTEENTH 0.0000
-2.3010 <s> SIXTH 0.0000
-2.3010 <s> SIXTY 0.0000
-2.3010 <s> TEN 0.0000
-2.3010 <s> TENTH 0.0000
-2.3010 <s> THE 0.0000
-2.3010 <s> THIRD 0.0000
-2.3010 <s> THIRTEEN 0.0000
-2.3010 <s> THIRTEENTH 0.0000
-2.3010 <s> THIRTIETH 0.0000
-2.3010 <s> THIRTY 0.0000
-2.3010 <s> THIRTY-FIRST 0.0000
-2.3010 <s> THREE 0.0000
-2.3010 <s> THURSDAY 0.0000
-2.3010 <s> TODAY 0.0000
-2.0000 <s> TOMORROW 0.0000
-2.3010 <s> TONIGHT 0.0000
-2.3010 <s> TUESDAY 0.0000
-2.3010 <s> TWELFTH 0.0000
-2.3010 <s> TWELVE -0.1761
-2.3010 <s> TWENTIETH 0.0000
-2.3010 <s> TWENTY 0.0000
-2.3010 <s> TWENTY-EIGHTH 0.0000
-2.3010 <s> TWENTY-FIFTH 0.0000
-2.3010 <s> TWENTY-FIRST 0.0000
-2.3010 <s> TWENTY-FOURTH 0.0000
-2.3010 <s> TWENTY-NINTH 0.0000
-2.3010 <s> TWENTY-SECOND 0.0000
-2.3010 <s> TWENTY-SEVENTH 0.0000
-2.3010 <s> TWENTY-SIXTH 0.0000
-2.3010 <s> TWENTY-THIRD 0.0000
-2.3010 <s> TWO 0.0000
-2.3010 <s> WEDNESDAY 0.0000
-1.0792 A M 0.0000
-0.3802 A MEETING 0.0000
-0.3010 AN APPOINTMENT 0.0000
-0.4771 APPOINTMENT </s> -0.3010
-0.7782 APPOINTMENT WITH -0.1249
-0.3010 APRIL </s> -0.3010
-0.6021 AT EIGHT -0.1761
-0.6021 AT TWELVE -0.1761
-0.3010 AUGUST </s> -0.3010
-0.3010 BELSIN </s> -0.3010
-0.6021 CHANDRA </s> -0.3010
-0.6021 CHANDRA AT -0.1761
-0.3010 CHRIS </s> -0.3010
-0.6021 CLOCK TOMORROW -0.1249
-0.6021 CLOCK TONIGHT 0.0000
-0.3010 COLIN </s> -0.3010
-0.6021 CREATE A -0.0669
-0.6021 CREATE AN 0.0000
-0.3010 DECEMBER </s> -0.3010
-0.6021 EIGHT </s> -0.3010
-0.6021 EIGHT O 0.0000
-0.3010 EIGHTEEN </s> -0.3010
-0.3010 EIGHTEENTH </s> -0.3010
-0.3010 EIGHTH </s> -0.3010
-0.3010 ELEVEN </s> -0.3010
-0.3010 ELEVENTH </s> -0.3010
-0.3010 FEBRUARY </s> -0.3010
-0.3010 FIFTEEN </s> -0.3010
-0.3010 FIFTEENTH </s> -0.3010
-0.3010 FIFTH </s> -0.3010
-0.3010 FIFTY </s> -0.3010
-0.3010 FIRST </s> -0.3010
-0.3010 FIVE </s> -0.3010
-0.3010 FORTY </s> -0.3010
-0.3010 FOUR </s> -0.3010
-0.3010 FOURTEEN </s> -0.3010
-0.3010 FOURTEENTH </s> -0.3010
-0.3010 FOURTH </s> -0.3010
-0.3010 FRIDAY </s> -0.3010
-0.3010 INVOCABOT SCHEDULE -0.0969
-0.3010 JANUARY </s> -0.3010
-0.3010 JULIO </s> -0.3010
-0.3010 JULY </s> -0.3010
-0.3010 JUNE </s> -0.3010
-0.6021 KYLE </s> -0.3010
-0.6021 KYLE AT -0.1761
-0.3010 M </s> -0.3010
-0.3010 MAKE ME 0.0000
-0.3010 MARCH </s> -0.3010
-0.3010 MAY </s> -0.3010
-0.6021 ME A -0.0669
-0.6021 ME AN 0.0000
-0.3979 MEETING </s> -0.3010
-1.0000 MEETING WITH -0.2218
-0.3010 MONDAY </s> -0.3010
-0.3010 NIGHT </s> -0.3010
-0.3010 NINE </s> -0.3010
-0.3010 NINETEEN </s> -0.3010
-0.3010 NINETEENTH </s> -0.3010
-0.3010 NINTH </s> -0.3010
-0.3010 NOVEMBER </s> -0.3010
-0.3010 O CLOCK 0.0000
-0.3010 OCTOBER </s> -0.3010
-0.3010 ON </s> -0.3010
-0.3010 ONE </s> -0.3010
-0.3010 P M 0.0000
-0.3010 PETER </s> -0.3010
-0.3010 PETROS </s> -0.3010
-0.9031 SCHEDULE A -0.0669
-0.4260 SCHEDULE AN 0.0000
-0.3010 SECOND </s> -0.3010
-0.3010 SEPTEMBER </s> -0.3010
-0.3010 SET UP 0.0000
-0.3010 SEVEN </s> -0.3010
-0.3010 SEVENTEEN </s> -0.3010
-0.3010 SEVENTEENTH </s> -0.3010
-0.3010 SEVENTH </s> -0.3010
-0.3010 SHENG </s> -0.3010
-0.3010 SIX </s> -0.3010
-0.3010 SIXTEEN </s> -0.3010
-0.3010 SIXTEENTH </s> -0.3010
-0.3010 SIXTH </s> -0.3010
-0.3010 SIXTY </s> -0.3010
-0.3010 TEN </s> -0.3010
-0.3010 TENTH </s> -0.3010
-0.3010 THE </s> -0.3010
-0.3010 THIRD </s> -0.3010
-0.3010 THIRTEEN </s> -0.3010
-0.3010 THIRTEENTH </s> -0.3010
-0.3010 THIRTIETH </s> -0.3010
-0.3010 THIRTY </s> -0.3010
-0.3010 THIRTY-FIRST </s> -0.3010
-0.3010 THREE </s> -0.3010
-0.3010 THURSDAY </s> -0.3010
-0.3010 TODAY </s> -0.3010
-0.4771 TOMORROW </s> -0.3010
-0.7782 TOMORROW NIGHT 0.0000
-0.3010 TONIGHT </s> -0.3010
-0.3010 TUESDAY </s> -0.3010
-0.3010 TWELFTH </s> -0.3010
-0.6021 TWELVE </s> -0.3010
-0.6021 TWELVE O 0.0000
-0.3010 TWENTIETH </s> -0.3010
-0.3010 TWENTY </s> -0.3010
-0.3010 TWENTY-EIGHTH </s> -0.3010
-0.3010 TWENTY-FIFTH </s> -0.3010
-0.3010 TWENTY-FIRST </s> -0.3010
-0.3010 TWENTY-FOURTH </s> -0.3010
-0.3010 TWENTY-NINTH </s> -0.3010
-0.3010 TWENTY-SECOND </s> -0.3010
-0.3010 TWENTY-SEVENTH </s> -0.3010
-0.3010 TWENTY-SIXTH </s> -0.3010
-0.3010 TWENTY-THIRD </s> -0.3010
-0.3010 TWO </s> -0.3010
-0.4771 UP A -0.0669
-0.7782 UP AN 0.0000
-0.3010 WEDNESDAY </s> -0.3010
-0.7782 WITH BELSIN 0.0000
-0.7782 WITH CHANDRA -0.1761
-0.7782 WITH KYLE -0.1761

\3-grams:
-0.3010 <s> A M
-0.3010 <s> APRIL </s>
-0.3010 <s> AUGUST </s>
-0.3010 <s> BELSIN </s>
-0.3010 <s> CHANDRA </s>
-0.3010 <s> CHRIS </s>
-0.3010 <s> COLIN </s>
-0.6021 <s> CREATE A
-0.6021 <s> CREATE AN
-0.3010 <s> DECEMBER </s>
-0.3010 <s> EIGHT </s>
-0.3010 <s> EIGHTEEN </s>
-0.3010 <s> EIGHTEENTH </s>
-0.3010 <s> EIGHTH </s>
-0.3010 <s> ELEVEN </s>
-0.3010 <s> ELEVENTH </s>
-0.3010 <s> FEBRUARY </s>
-0.3010 <s> FIFTEEN </s>
-0.3010 <s> FIFTEENTH </s>
-0.3010 <s> FIFTH </s>
-0.3010 <s> FIFTY </s>
-0.3010 <s> FIRST </s>
-0.3010 <s> FIVE </s>
-0.3010 <s> FORTY </s>
-0.3010 <s> FOUR </s>
-0.3010 <s> FOURTEEN </s>
-0.3010 <s> FOURTEENTH </s>
-0.3010 <s> FOURTH </s>
-0.3010 <s> FRIDAY </s>
-0.3010 <s> INVOCABOT SCHEDULE
-0.3010 <s> JANUARY </s>
-0.3010 <s> JULIO </s>
-0.3010 <s> JULY </s>
-0.3010 <s> JUNE </s>
-0.3010 <s> KYLE </s>
-0.3010 <s> MAKE ME
-0.3010 <s> MARCH </s>
-0.3010 <s> MAY </s>
-0.3010 <s> MONDAY </s>
-0.3010 <s> NINE </s>
-0.3010 <s> NINETEEN </s>
-0.3010 <s> NINETEENTH </s>
-0.3010 <s> NINTH </s>
-0.3010 <s> NOVEMBER </s>
-0.3010 <s> OCTOBER </s>
-0.3010 <s> ON </s>
-0.3010 <s> ONE </s>
-0.3010 <s> P M
-0.3010 <s> PETER </s>
-0.3010 <s> PETROS </s>
-0.6021 <s> SCHEDULE A
-0.6021 <s> SCHEDULE AN
-0.3010 <s> SECOND </s>
-0.3010 <s> SEPTEMBER </s>
-0.3010 <s> SET UP
-0.3010 <s> SEVEN </s>
-0.3010 <s> SEVENTEEN </s>
-0.3010 <s> SEVENTEENTH </s>
-0.3010 <s> SEVENTH </s>
-0.3010 <s> SHENG </s>
-0.3010 <s> SIX </s>
-0.3010 <s> SIXTEEN </s>
-0.3010 <s> SIXTEENTH </s>
-0.3010 <s> SIXTH </s>
-0.3010 <s> SIXTY </s>
-0.3010 <s> TEN </s>
-0.3010 <s> TENTH </s>
-0.3010 <s> THE </s>
-0.3010 <s> THIRD </s>
-0.3010 <s> THIRTEEN </s>
-0.3010 <s> THIRTEENTH </s>
-0.3010 <s> THIRTIETH </s>
-0.3010 <s> THIRTY </s>
-0.3010 <s> THIRTY-FIRST </s>
-0.3010 <s> THREE </s>
-0.3010 <s> THURSDAY </s>
-0.3010 <s> TODAY </s>
-0.6021 <s> TOMORROW </s>
-0.6021 <s> TOMORROW NIGHT
-0.3010 <s> TONIGHT </s>
-0.3010 <s> TUESDAY </s>
-0.3010 <s> TWELFTH </s>
-0.3010 <s> TWELVE </s>
-0.3010 <s> TWENTIETH </s>
-0.3010 <s> TWENTY </s>
-0.3010 <s> TWENTY-EIGHTH </s>
-0.3010 <s> TWENTY-FIFTH </s>
-0.3010 <s> TWENTY-FIRST </s>
-0.3010 <s> TWENTY-FOURTH </s>
-0.3010 <s> TWENTY-NINTH </s>
-0.3010 <s> TWENTY-SECOND </s>
-0.3010 <s> TWENTY-SEVENTH </s>
-0.3010 <s> TWENTY-SIXTH </s>
-0.3010 <s> TWENTY-THIRD </s>
-0.3010 <s> TWO </s>
-0.3010 <s> WEDNESDAY </s>
-0.3010 A M </s>
-0.3979 A MEETING </s>
-1.0000 A MEETING WITH
-0.4771 AN APPOINTMENT </s>
-0.7782 AN APPOINTMENT WITH
-0.6021 APPOINTMENT WITH CHANDRA
-0.6021 APPOINTMENT WITH KYLE
-0.3010 AT EIGHT O
-0.3010 AT TWELVE O
-0.3010 CHANDRA AT TWELVE
-0.3010 CLOCK TOMORROW </s>
-0.3010 CLOCK TONIGHT </s>
-0.3010 CREATE A MEETING
-0.3010 CREATE AN APPOINTMENT
-0.3010 EIGHT O CLOCK
-0.3010 INVOCABOT SCHEDULE AN
-0.3010 KYLE AT EIGHT
-0.6021 MAKE ME A
-0.6021 MAKE ME AN
-0.3010 ME A MEETING
-0.3010 ME AN APPOINTMENT
-0.3010 MEETING WITH BELSIN
-0.6021 O CLOCK TOMORROW
-0.6021 O CLOCK TONIGHT
-0.3010 P M </s>
-0.3010 SCHEDULE A MEETING
-0.3010 SCHEDULE AN APPOINTMENT
-0.4771 SET UP A
-0.7782 SET UP AN
-0.3010 TOMORROW NIGHT </s>
-0.3010 TWELVE O CLOCK
-0.3010 UP A MEETING
-0.3010 UP AN APPOINTMENT
-0.3010 WITH BELSIN </s>
-0.3010 WITH CHANDRA AT
-0.3010 WITH KYLE AT

\end\
