Language model created by QuickLM on Thu Feb 19 18:43:06 EST 2015
Copyright (c) 1996-2010 Carnegie Mellon University and Alexander I. Rudnicky

The model is in standard ARPA format, designed by Doug Paul while he was at MITRE.

The code that was used to produce this language model is available in Open Source.
Please visit http://www.speech.cs.cmu.edu/tools/ for more information

The (fixed) discount mass is 0.5. The backoffs are computed using the ratio method.
This model based on a corpus of 29 sentences and 44 words

\data\
ngram 1=44
ngram 2=77
ngram 3=51

\1-grams:
-0.8917 </s> -0.3010
-0.8917 <s> -0.2347
-2.0531 A -0.2952
-2.0531 AN -0.2972
-2.0531 APPOINTMENT -0.2952
-2.0531 AT -0.2933
-2.3541 BELSIN -0.2414
-2.3541 CHANDRA -0.2972
-2.0531 CLOCK -0.2972
-2.0531 EIGHT -0.2370
-2.3541 EIGHTEEN -0.2414
-2.3541 ELEVEN -0.2414
-2.3541 FIFTEEN -0.2414
-2.3541 FIFTY -0.2414
-2.3541 FIVE -0.2414
-2.3541 FORTY -0.2414
-2.3541 FOUR -0.2414
-2.3541 FOURTEEN -0.2414
-2.0531 INVOCABOT -0.2972
-2.3541 KYLE -0.2972
-2.0531 M -0.2414
-2.3541 MEETING -0.2952
-2.3541 NINE -0.2414
-2.3541 NINETEEN -0.2414
-2.0531 O -0.2972
-2.3541 ONE -0.2414
-2.3541 P -0.2972
-2.0531 SCHEDULE -0.2972
-2.3541 SET -0.2972
-2.3541 SEVEN -0.2414
-2.3541 SEVENTEEN -0.2414
-2.3541 SIX -0.2414
-2.3541 SIXTEEN -0.2414
-2.3541 SIXTY -0.2414
-2.3541 TEN -0.2414
-2.3541 THIRTEEN -0.2414
-2.3541 THIRTY -0.2414
-2.3541 THREE -0.2414
-2.3541 TOMORROW -0.2414
-2.3541 TONIGHT -0.2414
-2.0531 TWELVE -0.2370
-2.3541 TWENTY -0.2414
-2.3541 TWO -0.2414
-1.8770 WITH -0.2952

\2-grams:
-1.7634 <s> A -0.1761
-1.7634 <s> EIGHT -0.1761
-1.7634 <s> EIGHTEEN 0.0000
-1.7634 <s> ELEVEN 0.0000
-1.7634 <s> FIFTEEN 0.0000
-1.7634 <s> FIFTY 0.0000
-1.7634 <s> FIVE 0.0000
-1.7634 <s> FORTY 0.0000
-1.7634 <s> FOUR 0.0000
-1.7634 <s> FOURTEEN 0.0000
-1.4624 <s> INVOCABOT 0.0000
-1.7634 <s> NINE 0.0000
-1.7634 <s> NINETEEN 0.0000
-1.7634 <s> ONE 0.0000
-1.7634 <s> P 0.0000
-1.7634 <s> SET 0.0000
-1.7634 <s> SEVEN 0.0000
-1.7634 <s> SEVENTEEN 0.0000
-1.7634 <s> SIX 0.0000
-1.7634 <s> SIXTEEN 0.0000
-1.7634 <s> SIXTY 0.0000
-1.7634 <s> TEN 0.0000
-1.7634 <s> THIRTEEN 0.0000
-1.7634 <s> THIRTY 0.0000
-1.7634 <s> THREE 0.0000
-1.7634 <s> TWELVE -0.1761
-1.7634 <s> TWENTY 0.0000
-1.7634 <s> TWO 0.0000
-0.6021 A M 0.0000
-0.6021 A MEETING 0.0000
-0.3010 AN APPOINTMENT 0.0000
-0.3010 APPOINTMENT WITH -0.1249
-0.6021 AT EIGHT -0.1761
-0.6021 AT TWELVE -0.1761
-0.3010 BELSIN </s> -0.3010
-0.3010 CHANDRA AT -0.1761
-0.6021 CLOCK TOMORROW 0.0000
-0.6021 CLOCK TONIGHT 0.0000
-0.6021 EIGHT </s> -0.3010
-0.6021 EIGHT O 0.0000
-0.3010 EIGHTEEN </s> -0.3010
-0.3010 ELEVEN </s> -0.3010
-0.3010 FIFTEEN </s> -0.3010
-0.3010 FIFTY </s> -0.3010
-0.3010 FIVE </s> -0.3010
-0.3010 FORTY </s> -0.3010
-0.3010 FOUR </s> -0.3010
-0.3010 FOURTEEN </s> -0.3010
-0.3010 INVOCABOT SCHEDULE 0.0000
-0.3010 KYLE AT -0.1761
-0.3010 M </s> -0.3010
-0.3010 MEETING WITH -0.2218
-0.3010 NINE </s> -0.3010
-0.3010 NINETEEN </s> -0.3010
-0.3010 O CLOCK 0.0000
-0.3010 ONE </s> -0.3010
-0.3010 P M 0.0000
-0.3010 SCHEDULE AN 0.0000
-0.3010 SET A -0.1761
-0.3010 SEVEN </s> -0.3010
-0.3010 SEVENTEEN </s> -0.3010
-0.3010 SIX </s> -0.3010
-0.3010 SIXTEEN </s> -0.3010
-0.3010 SIXTY </s> -0.3010
-0.3010 TEN </s> -0.3010
-0.3010 THIRTEEN </s> -0.3010
-0.3010 THIRTY </s> -0.3010
-0.3010 THREE </s> -0.3010
-0.3010 TOMORROW </s> -0.3010
-0.3010 TONIGHT </s> -0.3010
-0.6021 TWELVE </s> -0.3010
-0.6021 TWELVE O 0.0000
-0.3010 TWENTY </s> -0.3010
-0.3010 TWO </s> -0.3010
-0.7782 WITH BELSIN 0.0000
-0.7782 WITH CHANDRA 0.0000
-0.7782 WITH KYLE 0.0000

\3-grams:
-0.3010 <s> A M
-0.3010 <s> EIGHT </s>
-0.3010 <s> EIGHTEEN </s>
-0.3010 <s> ELEVEN </s>
-0.3010 <s> FIFTEEN </s>
-0.3010 <s> FIFTY </s>
-0.3010 <s> FIVE </s>
-0.3010 <s> FORTY </s>
-0.3010 <s> FOUR </s>
-0.3010 <s> FOURTEEN </s>
-0.3010 <s> INVOCABOT SCHEDULE
-0.3010 <s> NINE </s>
-0.3010 <s> NINETEEN </s>
-0.3010 <s> ONE </s>
-0.3010 <s> P M
-0.3010 <s> SET A
-0.3010 <s> SEVEN </s>
-0.3010 <s> SEVENTEEN </s>
-0.3010 <s> SIX </s>
-0.3010 <s> SIXTEEN </s>
-0.3010 <s> SIXTY </s>
-0.3010 <s> TEN </s>
-0.3010 <s> THIRTEEN </s>
-0.3010 <s> THIRTY </s>
-0.3010 <s> THREE </s>
-0.3010 <s> TWELVE </s>
-0.3010 <s> TWENTY </s>
-0.3010 <s> TWO </s>
-0.3010 A M </s>
-0.3010 A MEETING WITH
-0.3010 AN APPOINTMENT WITH
-0.6021 APPOINTMENT WITH CHANDRA
-0.6021 APPOINTMENT WITH KYLE
-0.3010 AT EIGHT O
-0.3010 AT TWELVE O
-0.3010 CHANDRA AT TWELVE
-0.3010 CLOCK TOMORROW </s>
-0.3010 CLOCK TONIGHT </s>
-0.3010 EIGHT O CLOCK
-0.3010 INVOCABOT SCHEDULE AN
-0.3010 KYLE AT EIGHT
-0.3010 MEETING WITH BELSIN
-0.6021 O CLOCK TOMORROW
-0.6021 O CLOCK TONIGHT
-0.3010 P M </s>
-0.3010 SCHEDULE AN APPOINTMENT
-0.3010 SET A MEETING
-0.3010 TWELVE O CLOCK
-0.3010 WITH BELSIN </s>
-0.3010 WITH CHANDRA AT
-0.3010 WITH KYLE AT

\end\
